digraph Tree {
node [shape=box, style="rounded", color="black", fontname=helvetica] ;
edge [fontname=helvetica] ;
0 [label="lateaircraftdelay <= 1.9\nmse = 0.9\nsamples = 4724\nvalue = -0.0"] ;
1 [label="carrierdelay <= 2.6\nmse = 0.7\nsamples = 4471\nvalue = -0.1"] ;
0 -> 1 [labeldistance=2.5, labelangle=45, headlabel="True"] ;
2 [label="nasdelay <= 2.2\nmse = 0.4\nsamples = 4359\nvalue = -0.2"] ;
1 -> 2 ;
3 [label="mse = 0.3\nsamples = 4196\nvalue = -0.3"] ;
2 -> 3 ;
4 [label="mse = 1.0\nsamples = 163\nvalue = 1.6"] ;
2 -> 4 ;
5 [label="carrierdelay <= 6.0\nmse = 3.0\nsamples = 112\nvalue = 2.7"] ;
1 -> 5 ;
6 [label="mse = 0.3\nsamples = 89\nvalue = 2.0"] ;
5 -> 6 ;
7 [label="mse = 3.6\nsamples = 23\nvalue = 5.7"] ;
5 -> 7 ;
8 [label="lateaircraftdelay <= 4.1\nmse = 0.9\nsamples = 253\nvalue = 1.9"] ;
0 -> 8 [labeldistance=2.5, labelangle=-45, headlabel="False"] ;
9 [label="lateaircraftdelay <= 2.8\nmse = 0.4\nsamples = 191\nvalue = 1.6"] ;
8 -> 9 ;
10 [label="mse = 0.2\nsamples = 103\nvalue = 1.2"] ;
9 -> 10 ;
11 [label="mse = 0.3\nsamples = 88\nvalue = 2.0"] ;
9 -> 11 ;
12 [label="carrierdelay <= 1.3\nmse = 0.7\nsamples = 62\nvalue = 3.1"] ;
8 -> 12 ;
13 [label="mse = 0.4\nsamples = 61\nvalue = 3.0"] ;
12 -> 13 ;
14 [label="mse = 0.0\nsamples = 1\nvalue = 6.7"] ;
12 -> 14 ;
}