digraph Tree {
node [shape=box, style="rounded", color="black", fontname=helvetica] ;
edge [fontname=helvetica] ;
0 [label="lateaircraftdelay <= 2.1\nmse = 1.0\nsamples = 4758\nvalue = 0.0"] ;
1 [label="carrierdelay <= 2.2\nmse = 0.8\nsamples = 4531\nvalue = -0.1"] ;
0 -> 1 [labeldistance=2.5, labelangle=45, headlabel="True"] ;
2 [label="nasdelay <= 2.3\nmse = 0.5\nsamples = 4379\nvalue = -0.2"] ;
1 -> 2 ;
3 [label="mse = 0.3\nsamples = 4229\nvalue = -0.2"] ;
2 -> 3 ;
4 [label="mse = 1.6\nsamples = 150\nvalue = 1.9"] ;
2 -> 4 ;
5 [label="carrierdelay <= 6.0\nmse = 2.3\nsamples = 152\nvalue = 2.3"] ;
1 -> 5 ;
6 [label="mse = 0.4\nsamples = 132\nvalue = 1.8"] ;
5 -> 6 ;
7 [label="mse = 2.9\nsamples = 20\nvalue = 5.4"] ;
5 -> 7 ;
8 [label="lateaircraftdelay <= 4.8\nmse = 0.9\nsamples = 227\nvalue = 2.1"] ;
0 -> 8 [labeldistance=2.5, labelangle=-45, headlabel="False"] ;
9 [label="nasdelay <= 5.2\nmse = 0.5\nsamples = 189\nvalue = 1.8"] ;
8 -> 9 ;
10 [label="mse = 0.4\nsamples = 187\nvalue = 1.8"] ;
9 -> 10 ;
11 [label="mse = 0.0\nsamples = 2\nvalue = 5.5"] ;
9 -> 11 ;
12 [label="lateaircraftdelay <= 8.1\nmse = 0.7\nsamples = 38\nvalue = 3.5"] ;
8 -> 12 ;
13 [label="mse = 0.3\nsamples = 36\nvalue = 3.3"] ;
12 -> 13 ;
14 [label="mse = 0.2\nsamples = 2\nvalue = 6.4"] ;
12 -> 14 ;
}