digraph Tree {
node [shape=box, style="rounded", color="black", fontname=helvetica] ;
edge [fontname=helvetica] ;
0 [label="lateaircraftdelay <= 1.8\nmse = 1.0\nsamples = 4742\nvalue = 0.0"] ;
1 [label="carrierdelay <= 2.3\nmse = 0.7\nsamples = 4469\nvalue = -0.1"] ;
0 -> 1 [labeldistance=2.5, labelangle=45, headlabel="True"] ;
2 [label="nasdelay <= 2.3\nmse = 0.5\nsamples = 4339\nvalue = -0.2"] ;
1 -> 2 ;
3 [label="mse = 0.3\nsamples = 4185\nvalue = -0.3"] ;
2 -> 3 ;
4 [label="mse = 1.4\nsamples = 154\nvalue = 1.6"] ;
2 -> 4 ;
5 [label="carrierdelay <= 5.5\nmse = 2.1\nsamples = 130\nvalue = 2.4"] ;
1 -> 5 ;
6 [label="mse = 0.4\nsamples = 106\nvalue = 1.8"] ;
5 -> 6 ;
7 [label="mse = 2.0\nsamples = 24\nvalue = 4.8"] ;
5 -> 7 ;
8 [label="lateaircraftdelay <= 3.7\nmse = 1.0\nsamples = 273\nvalue = 1.9"] ;
0 -> 8 [labeldistance=2.5, labelangle=-45, headlabel="False"] ;
9 [label="weatherdelay <= 1.5\nmse = 0.6\nsamples = 188\nvalue = 1.5"] ;
8 -> 9 ;
10 [label="mse = 0.3\nsamples = 183\nvalue = 1.4"] ;
9 -> 10 ;
11 [label="mse = 1.6\nsamples = 5\nvalue = 3.5"] ;
9 -> 11 ;
12 [label="lateaircraftdelay <= 5.2\nmse = 0.4\nsamples = 85\nvalue = 2.9"] ;
8 -> 12 ;
13 [label="mse = 0.1\nsamples = 53\nvalue = 2.5"] ;
12 -> 13 ;
14 [label="mse = 0.2\nsamples = 32\nvalue = 3.6"] ;
12 -> 14 ;
}